0.101542550335028,-0.381073900537631,0.389880747341838,0.0165172607347364,-0.0180764569139344,-0.232747993704142,0.0999209697019716,0.438602327814413,0.425588220124135,0.136004688926291,0.0473125689808555,0.266288649525531,0.431889444849151,-0.235964128642585,-0.0359471611777211,-0.453200396754734,-0.186064684537676,-0.226709330610584,0.12130691908401,-0.122242613508226,-0.353791761437707,0.0712137128748941,0.365609059851098,-0.0391744715958755,-0.260418236452517,0.17948133351189,0.000756156278921705,-0.437143535526149,0.0601800440590666,0.147834628960831,-0.445435620275839,-0.426100083261932,-0.170091148638099,0.264028163163646,-0.186846821392053,0.106826823482039,0.426428280801839,0.439026425438227,0.108238034017833,0.439919887940616,0.218297744053247,-0.296311931116197,0.215581171419016,0.240608440742821,-0.322833206725363,0.0742382450092873,-0.267439997785965,-0.36496695664174,0.287625632036987,-0.0402446573172203,-0.218871894386862,-0.219532442065829,-0.14824353423912,0.0311503191021698,-0.254752191095519,0.29236096335238,0.232922551891179,0.207865982322123,-0.138356641799671,-0.0170189461264384,0.0725903797493513,0.267928124453693,0.0765765895915941,-0.0933373389764664,0.260915722563422,-0.124101374250328,-0.111790838975472,-0.181878784819547,-0.0581651099623159,-0.0915317328011623,-0.108855874463876,0.202697797905111,0.236436464157593,-0.132441729135664,0.222401600297346,0.142403071053068,0.109221463786646,-0.00462558707498795,0.137053117962845,-0.102603823535618,0.174290131593709,0.127513139560875,0.0268993021385473,0.30213741694536,-0.136990896731384,-0.243047709057512,0.114621331890542,-0.16945102106545,-0.2402196820648,0.2458360977448,-0.0266709645583633,0.198936316026726,-0.172107839100602,0.131157111251001,0.190052727597869,0.0772534414028188,-0.13361290871481,0.212647994446161,-0.157933111548345,0.0687554387055506,-0.0464004561252643,-0.253364244132936,0.152997736147375,0.030217248626507,-0.134028465303053,0.0636496849496563,0.189739719678038,0.103004751948754,0.10863608572589,-0.294195361773369,-0.296420309437687,0.181174260275887,-0.200929674962552,0.267447815792525,-0.190732649188565,-0.230291304245016,0.239673973280009,0.302234300969852,0.184188149989421,-0.102227975346782,-0.096598430640681,-0.0859021513014277,-0.0476265667700144,-0.328570197124124,0.105533044902828,0.0690855301384682,0.195048125357166,0.165872658617222,-0.34742051051665,-0.0239454057215185,-0.199837456389985,-0.465539150940012,-0.471364583141392,0.410739048818956,0.336340978855606,0.706913133867766,0.401469218579887,0.0474411859321081,
