0.0931328162513926,-0.380715206401401,0.390074064714973,0.0151178971590545,-0.0190421902667561,-0.233191259544591,0.103039108090159,0.439355790432965,0.426621182513737,0.13764958392476,0.0491071455520495,0.264970517513411,0.44993339747812,-0.241223951831492,-0.0385001865069737,-0.457210773118408,-0.187608443600182,-0.220806698240944,0.109766246576448,-0.11526201574578,-0.350478553974291,0.0757400132593714,0.363782741860017,-0.0470702018019491,-0.270720274947043,0.177676995126801,-0.00174609355035264,-0.439860287919884,0.0599064452772656,0.150846130117318,-0.407746761823465,-0.424131909419177,-0.164219635366971,0.282277141547476,-0.177924457623068,0.101384573343624,0.420022303156168,0.444844220520451,0.111346484377205,0.440606060188739,0.215829265355763,-0.303210822292934,0.22377553928147,0.238922619434594,-0.323238804030982,0.0740685740781237,-0.267124268822638,-0.363462649873853,0.285840056773282,-0.0396107488892815,-0.220728588905004,-0.220239267314419,-0.147279687787679,0.0298427411301166,-0.252130066649737,0.29459521482913,0.22847765695707,0.20531624353277,-0.141162809321385,-0.020420776591009,0.0719100480967466,0.271890982821149,0.0826753902616068,-0.099819594238744,0.257283129639229,-0.119774969164444,-0.122243178205158,-0.195872857239795,-0.0636603708510449,-0.108238036780832,-0.0824928917339625,0.218974143289182,0.216861575953859,-0.139283763888458,0.231927663388951,0.152539423022333,0.118533204740491,0.0205148070646444,0.138667512149001,-0.117636574815062,0.137313742164904,0.163027636164925,0.0505294341932638,0.289422554783219,-0.137203553167785,-0.24102072664096,0.114881503534435,-0.171988281783397,-0.243521294180489,0.242354633267931,-0.019596992936603,0.205419828221057,-0.176769475732578,0.127592463395916,0.184962672643239,0.0796062049272725,-0.141202453242713,0.220929518624642,-0.15474137462038,0.0638672515121184,-0.0452882576960515,-0.249607544456138,0.154634976456902,0.0290743721332129,-0.116288659226449,0.0594934834449636,0.188262506533102,0.0900521681596648,0.116123131774099,-0.283676341713502,-0.293625980648921,0.172338546206704,-0.206158551404644,0.256534757270082,-0.205035098637732,-0.213503758364328,0.252342591389575,0.292814334327459,0.182101008403554,-0.111943156478142,-0.234377726187958,-0.0704473628127786,-0.0873708620002598,-0.381291042573057,0.0786541703891445,0.0933612346429921,0.151091374568134,0.12681299250108,-0.357234719132124,0.0386692822442186,-0.119941752418134,-0.432514271651152,-0.545858911453142,0.495664318598638,0.374369913013058,0.648683914502747,0.492055872511778,0.0702082063892152,
