0.0968743224416846,-0.382012096013991,0.389700871027897,0.0142075778055827,-0.0183741684994982,-0.231884972571628,0.105044243764283,0.439011984438097,0.426882936945308,0.137927594054857,0.0498734954210311,0.265095835578043,0.450500847620604,-0.241227970716832,-0.0385754312857263,-0.457140087120978,-0.187520582437815,-0.220761927867868,0.116166926890518,-0.114921302479725,-0.350739961461637,0.0755745287358052,0.363231752606808,-0.0472652976225613,-0.270821277006888,0.178114000774659,-0.0021976262550536,-0.440062127029163,0.059134625098303,0.150732051354749,-0.40527677447337,-0.424245279997841,-0.162690511244577,0.284107336841183,-0.175881030655631,0.100557644903068,0.427799137499384,0.444198976235526,0.110744904281649,0.439826289058109,0.215894274768026,-0.302363412821269,0.224493892019948,0.239384051007612,-0.323115242601076,0.074444562897174,-0.267341429941783,-0.363937295546247,0.285834238969587,-0.038732641616731,-0.220336333155121,-0.219782118312575,-0.14853703338945,0.0284348994526403,-0.25032894139331,0.296034065460268,0.226849939335854,0.20545071572362,-0.141309062761258,-0.0201954753443103,0.0722939289793134,0.271925023616076,0.0826679810187128,-0.10009316475747,0.256935531657057,-0.118970133043573,-0.1253439255717,-0.198303409841264,-0.0626587469613097,-0.110079402618173,-0.0794032551189356,0.220797583657853,0.213674724985095,-0.138555730924592,0.234321725640091,0.147316827458749,0.118197604797953,0.0159874690643757,0.131573692656935,-0.114173070713571,0.140737520116419,0.161883686879366,0.0540891020784844,0.278526187253715,-0.139179872186192,-0.240943308360489,0.114618913355892,-0.174829148504228,-0.242910923392311,0.242519097340164,-0.0183628477507642,0.208619603685851,-0.180384044448148,0.125564104278499,0.183644936075581,0.0803460321793787,-0.142661384616753,0.222675897022235,-0.153621449571644,0.0621794282229133,-0.0444276428734403,-0.248875997747136,0.152524169607652,0.0268514656711719,-0.114758796108608,0.059100987322127,0.190524835740092,0.0919346594631159,0.112446548020195,-0.28445990366218,-0.289916118484099,0.169953938496609,-0.207400355699409,0.257590993772767,-0.207012122179486,-0.211593903632765,0.253196028919769,0.291638990511289,0.183918779832159,-0.111806144329109,-0.25544973749114,-0.0547132852799808,-0.101437121019073,-0.418240288349862,0.103367910222307,0.0912565447903421,0.13096089572305,0.0999483351340564,-0.365526941938243,0.0497484269986197,-0.0962395456642391,-0.418830241118036,-0.578679575644049,0.548336759700115,0.374597708618629,0.620954729689553,0.51390051542555,0.0691016371412082,
