0.0759144681769255,0.373094610210116,-0.11518443892519,-0.235733291523317,0.0865751951932907,-0.255412140472074,0.0323005857899854,0.36140739879171,-0.293773804467216,0.232135286065752,-0.16373436152935,-0.293801804515536,-0.328668989435295,0.248248296804433,0.187450470866489,-0.361793170129816,0.0248566269874573,-0.156448607886273,-0.240234776053083,-0.0820857307276294,0.0404189842235924,-0.0404101533548699,0.440266788005829,-0.201999180231823,-0.338747008319758,0.127591277106487,-0.280883414940576,0.207847000804654,0.114896908402443,-0.434898139682525,0.465062154491043,-0.0451715073183306,0.0800450415809137,-0.450089780763414,0.45650726556778,-0.19173112682936,-0.248052722466252,-0.0175677751277766,0.140088849072827,0.267937751110603,-0.402075827121735,0.007081924382632,0.415324822053641,0.231085986941418,-0.098872358260535,-0.310478292628211,0.304105937480927,0.42248227469532,-0.298516986370463,-0.237323806546422,-0.24495088861576,-0.0707305168397035,0.184231123765437,0.157747113757181,-0.205280870833279,-0.0150643654972368,-0.0465641681990877,0.0985279212308538,-0.233662358923491,0.259648735443651,0.19026461192684,-0.0428484675783994,0.0877121832860495,-0.314419618826457,-0.174973708151194,0.129085736067155,-0.0542180385997422,-0.266044510822264,0.0148142783204954,0.137957807855155,-0.271725539111516,-0.0303338768805474,0.214419310842763,0.163414690930489,0.216490114989084,0.246246705129279,0.254361028742046,0.269309019638166,0.178262548729844,-0.0846897240609625,-0.24123188774314,0.00445996563886079,0.00793999754606238,0.161670917400511,-0.0874743011271068,-0.194432762274609,-0.085672246329759,0.294166717899284,-0.160233724305228,0.0183683089766843,-0.167865886014124,-0.0494031667318067,0.0891414328166778,0.184968989557221,-0.0785223490620541,0.0654878710739517,-0.219770741418811,0.155480577732038,-0.29078709749807,0.0282657460118254,-0.110287835883919,-0.115859274575813,0.22211326876664,-0.157725001585968,0.206156854495932,0.0917605964571139,0.167675942673796,0.00889353874443321,-0.182707240815625,0.0565619257390407,-0.0204359779626535,0.0811342752651113,-0.0523336786464108,-0.111326025003863,-0.238037989061137,-0.196485967861337,-0.237868562326536,-0.154008553891421,0.195856863690181,-0.276822356690327,-0.142915993597955,-0.17767794794706,-0.622204364124058,0.0395301764868917,-0.487584024554342,-0.249628266728166,-0.22289674421169,-0.200329548138249,-0.14849026952164,0.0510205835992958,0.109953801457682,0.0277909614317875,0.0531548395861368,-0.249068735405854,0.0937823901053606,-0.26416647741686,0.0846395628389071,-0.492970979436694,
