0.257625069095352,-0.305742263066244,-0.0136895915991641,0.0591161344260537,0.291340685632552,0.295484386827361,-0.234267270808551,-0.00365305185893789,0.0151389837337231,0.130085355438228,0.216134624378893,-0.239489384907545,0.00937483567289658,0.120932777678012,0.334135783798702,-0.099461383704737,-0.0240000957115246,-0.223539085744734,0.0232459955420454,0.159237623323444,0.120827830539783,-0.251345974977447,0.205969567395998,0.0555664954470491,-0.246508673051571,0.243777863422095,-0.0674793461503278,0.244952488457329,0.215085094676678,-0.173651263292225,-0.153712217040849,0.325226049008781,-0.0935176725508019,0.178862464384689,0.32452944951937,0.0737723186017628,-0.266312734229128,-0.267024083213277,-0.142336672404868,0.0713500957801555,-0.0446400326610246,-0.106298199790553,-0.0330104057622721,-0.21367631042215,-0.264378835717606,-0.251047675141881,-0.31444633241473,-0.118416091535056,0.348928157693523,-0.00541612736724929,0.159498900884286,0.110158016602371,0.000306320193918903,-0.0396646078175842,-0.163518286010608,-0.0247366401548328,0.186488200923691,-0.0226942537552786,0.325775839215082,0.159326123496051,-0.0658078806516783,-0.287561436730161,0.274723904692386,0.0715678773733313,0.0335447121793917,0.303655745084496,-0.204146718489998,0.244231932535114,0.240583386276437,-0.120414088029499,0.0308819533844614,0.127348568171424,-0.226167718287714,0.142138814361242,0.0355250999166587,0.303874185568272,0.00768073296940263,-0.340390470022251,-0.28485732526532,-0.041822348745127,0.217687080457001,-0.246141159668348,-0.0867113736036819,0.305297204251101,0.295799281680956,-0.206360014970095,0.337436604606726,0.296847006273409,-0.171594997626625,-0.337199517262549,-0.266212139362709,-0.312750293406069,-0.266418485592507,0.0147733339554273,-0.0751400896452077,-0.08942130912158,0.0675322672579681,0.121687442881628,-0.153110523247044,0.291698483728127,-0.0461742118156573,0.0685490761896702,0.201176524685851,-0.167686522183353,0.101321409896042,0.215878477966672,-0.340974538722684,-0.0789808864292544,-0.181130996403584,0.0587811078488951,-0.246959100064432,-0.127874902726355,0.0137960258052843,-0.318602255534403,-0.0272382097984781,0.0921581200484664,-0.288246239469489,-0.0110524759289656,0.0866577245677252,-0.169699368485356,-0.0987816177556123,0.000320461020342016,-0.00871024358274116,-0.140396362469933,0.0584230575661063,-0.0720680697389574,0.131194101309181,0.0209988200066827,0.0905383363027542,-0.0738054064982488,0.0975934064303125,-0.00303294806661713,0.0343870400314847,0.00663430465235769,0.0532481199900079,0.0214192288218279,-0.131560994984866,-0.0451503939350267,0.109711189296515,-0.119961591166897,-0.118303923313681,0.16252151402256,-0.0738570479323739,-0.0416211235581728,-0.0721368745672529,0.14367756965108,-0.0923178360278967,0.147129522279947,0.0483898722341569,-0.116175852650034,0.018845787385202,-0.0267390312652824,0.141336917421786,0.110398708148495,-0.0564979336204856,0.0909834960128439,-0.00477230630583436,0.142034117579344,0.135879891942697,-0.139192520661561,0.00221791066845913,0.109526929019872,-0.14058406916303,0.132581757214083,-0.00143060509079204,-0.13774324522695,-0.0198888663566859,0.0676936378286413,0.160963365255059,-0.00841584634567699,-0.0771729162636775,-0.0349569790614,-0.0836980943103485,0.018920351534314,0.135370520957174,-0.01296637515574,0.0632262924895803,-0.145104527942147,0.0531205972864195,-0.121882923382827,-0.158259844022972,-0.0203439038899563,-0.135361669368382,-0.0569758148929854,-0.111213984034223,-0.0738502629895107,0.0366243845674259,-0.04704235667399,0.111503472877268,0.0628777492013701,0.018631227277919,0.0225243459612985,-0.0798815197837338,0.0284566451678211,0.14257744676873,-0.132600958673219,-0.141716491933723,0.0798284441470488,-0.111943935035291,-0.148148506202942,0.0802207499306347,-0.0553070829973677,-0.0764938239395769,0.140458189503653,-0.106303548097603,0.0229358528841093,0.00611362883706299,0.0220766888282534,-0.0721769965005786,0.0455836381679098,0.0127626700552542,-0.0213662319733612,0.128622646469393,0.0851005169217519,-0.0154933002336169,-0.0417199758322469,0.115554272264399,-0.112743685376812,-0.115430372448615,0.0375304302855313,-0.00369665848610695,-0.154785841244416,-0.122185861538492,-0.0490689981073372,-0.0495363571944306,0.0428022983873763,0.159653346675712,-0.122225080931603,0.166253430244974,0.0825826452456068,0.0151501739930335,0.00300610862016813,-0.0213239211478225,-0.0338731135122851,0.113403727570596,0.0864043415135887,-0.149584876657031,-0.0237276602533828,0.151174760391176,0.0656690249918263,-0.0846885859869568,0.0101330918107585,-0.14623172238283,-0.0208882573621934,-0.0367332124353029,0.100360952501714,-0.0841454651447864,0.147053243530619,0.0568347939917729,0.0839012967990662,0.109318229553295,0.0416230330645291,-0.0989851706067673,-0.0277435840018444,0.00983435463029949,-0.0570404110055383,0.151159505881168,-0.0249074996443569,0.0326391722705771,-0.0434460940219615,0.123393835262719,-0.0237003248062906,0.114557677202111,0.086794862866591,0.101434252249012,-0.0873566450069414,-0.0852361258876598,0.0299293587007539,0.0263520328445235,-0.0198956953033892,-0.0520515949204731,0.116435996772191,-0.0945832024372588,-0.00968909041436081,-0.0798616943307264,0.0963960813833012,0.00622912085869386,0.110667120928167,0.105150102017535,-0.0151506932715323,0.042481878467446,0.160622109778159,-0.121000043686028,0.104486477506879,0.0391849061291843,-0.149572518966718,0.00478621727241561,0.151172724971123,-0.115657557275796,-0.115387865663434,0.147100442568637,0.0728239662961622,0.136274665766386,0.14833847855378,0.135149339631383,-0.104444538281028,-0.00794818197949237,0.0650104097211307,0.0227021011045308,-0.0823528409054603,-0.0956524246030417,-0.161107462634378,0.077727126881272,0.122374586097586,-0.147366166702967,-0.0318100189984833,0.0674726240484266,0.0974147875003711,-0.0865714389251966,-0.0827465754470261,0.11936358940966,0.0602991351766512,-0.065005374789376,0.151130816268145,0.0593490978785805,0.050055962414509,-0.0942478824663335,-0.0749058403408467,-0.0732364367586459,-0.104399169442578,0.0224365542917611,0.0959906636692996,0.113120844649933,0.0902597637054214,0.0318076049315871,-0.00157570465365395,-0.107263100386874,-0.119292710426419,0.0696988240668468,0.00563737511759528,0.0564188782755014,-0.00641639262883615,-0.128537725936936,0.0565050907047462,-0.151217433607779,0.12585014954336,-0.0455232289297778,0.0793475270454628,0.155152789672606,0.0343172598709736,0.112971250022456,0.153992727924995,0.114014494769962,-0.0459192226396753,-0.047627076286981,-0.00527347835195835,0.0243892587331215,0.144749872917381,-0.122095460109731,0.15396240393496,0.15579550742366,0.155170169368575,-0.108616293058048,0.101089773249993,-0.0106928853961353,-0.0840271834896275,0.0506600770421572,-0.0791854580134351,-0.0466227397061044,-0.0511198125686934,-0.016989657058164,-0.0620800739642739,-0.100025260355015,0.0890020019418652,-0.0952543519657926,0.0941749154693819,0.23319783458752,-0.24658351186538,-0.0479315667284825,-0.10393733150305,0.170811931210042,-0.193811734761464,0.164957466945531,-0.00870376308491751,-0.0102038521385009,-0.254275397445375,0.00123546988497426,0.0474719175936248,-0.110794428836848,0.113149461134381,0.0162731789633802,0.0676466626476414,0.230672790814105,-0.243419156630522,0.0996474104952753,-0.024982603636674,0.124585858937641,-0.0540468030057038,0.261524638824233,0.0113398225003637,-0.0881476680114914,-0.257751616097661,
