0.0717203927533025,0.374556503803262,-0.11508897258164,-0.233789021937112,0.0865751951932907,-0.257356410058279,0.0405476454284272,0.362161071436315,-0.294753938678924,0.231852562510981,-0.16373436152935,-0.293519080960764,-0.329420419147168,0.247336377065926,0.186903359378033,-0.36361468227551,0.0248566269874573,-0.154627095740579,-0.251901211124223,-0.0848076197191078,0.0388698487918731,-0.0457422687459844,0.440266788005829,-0.196667064840709,-0.338874844767998,0.131545487366312,-0.280382931677866,0.213408415945526,0.114896908402443,-0.440459554823396,0.466440181884334,-0.0443877617563667,0.0802621979276653,-0.448840215332818,0.45650726556778,-0.192980692259956,-0.249222106468276,-0.0186383856267941,0.139788960897026,0.266226766495811,-0.402075827121735,0.00879290899742531,0.470256377424733,0.229398168170931,-0.0996496354847577,-0.313555815721401,0.304105937480927,0.42555979778851,-0.300472365302365,-0.236568678663987,-0.237592950669264,-0.0645575211567158,0.18929876897019,0.150782419752501,-0.199474077169916,-0.0206755876560555,-0.0493787855975432,0.0982766036346442,-0.233833273156844,0.257695534098341,0.18896468407051,-0.045388983638053,0.0912121235657716,-0.315721722221954,-0.172254208499614,0.128517340870252,-0.0656363012741463,-0.275446403762867,0.0234772763472787,0.145328372490637,-0.284578038708227,-0.0220060075486479,0.217904410927989,0.175150572738381,0.222147469260766,0.245361772446518,0.253456771144065,0.271755961269171,0.179998102687,-0.0837934773405282,-0.24347320415582,0.0058167863366715,0.00674520256105786,0.162986161223717,-0.0932144156973605,-0.198475451167981,-0.0788631938937297,0.29974985461443,-0.164158970999802,0.0194572152717343,-0.164304136421238,-0.0458503283301708,0.0913883022110022,0.188315086054026,-0.0748886774323271,0.0599309525662827,-0.223732606637152,0.156059111069774,-0.287823520238516,0.0256183364577926,-0.109904263141402,-0.120179429183744,0.223192313159051,-0.157206140921398,0.202410928039268,0.0888969419712223,0.165526037499485,0.0126333615449799,-0.185202251902302,0.0591241627784473,-0.0209307382439629,0.0796526886814079,-0.0496552941443221,-0.101667130117293,-0.229791085335922,-0.187519712381053,-0.248666629898263,-0.145787380600678,0.186385615727816,-0.282508771986301,-0.162911914693178,-0.164021151833446,-0.592884022011029,0.0490545170137877,-0.471023442915293,-0.2918940770512,-0.223595571169424,-0.240801379823831,-0.164748477280752,0.0450882784179349,0.111170925533913,0.0329566740947798,0.0561576597073805,-0.248634298747055,0.0819855991894687,-0.262020995775722,0.0789666259327547,-0.494406894857381,
