0.304537375800762,0.0489946438097094,0.308339157425476,0.142669493841548,0.229567610986278,0.312668087814463,0.204534366726875,0.0899503501909848,-0.160085712649586,0.0673571997074812,-0.13963953230594,0.287197910793851,-0.198570462479344,0.161642144914825,0.135510310530663,0.322604630593102,0.309287279746593,0.288658673946156,0.123550130476159,-0.123786946914152,-0.245756259398185,0.333635904476081,0.321376651525497,-0.180683829471504,-0.0997431722588457,0.260348995769369,-0.112910047875806,0.266004547081566,0.0216602709441376,-0.324310588355697,0.042733907699585,-0.250066113952958,0.281406560337095,-0.330321002286325,0.27151447901828,0.270331543789048,-0.308411669407408,-0.0677079816155458,-0.235520079731941,0.264040108471396,0.289024897331687,-0.162761395096624,-0.333241296165057,-0.107424274802254,-0.041922635018386,0.314136883185065,0.0340623259544373,0.0145530794404386,0.187687786172921,-0.044614057535945,0.256044902612926,-0.280087141664507,0.228509431470328,0.106313079730316,-0.129217982292175,-0.0345057920968972,0.242597827934803,-0.124269818197049,0.20200805113027,-0.302938219779234,0.225293577033213,0.120574121278608,-0.0685893893241882,-0.273380053144777,0.255430316673189,-0.294015894688798,0.0670298896253918,0.10775142720329,0.331539218407051,-0.00288086196992557,0.0801552832126617,-0.318479249266647,-0.0485523489782456,0.0975911828922937,0.0869511003968858,-0.265135942188832,0.260581994492745,-0.115692758735358,-0.225514084100723,-0.223117893759072,-0.0387328977591768,0.331524744055374,0.10380592374977,-0.116845665116074,-0.0133399090170517,-0.334514523165928,-0.194400638341904,-0.19913504062344,-0.0992272456789558,-0.166599751291504,0.039722540603042,-0.0165781821411059,-0.0279259481072804,0.135765876291562,0.324672788381577,-0.219109531162549,0.107160099930966,-0.0348174960398465,0.218629245765717,0.279455475761208,0.300657600540071,0.0137712894287538,0.32929852604866,0.0144946338328886,0.0612742787553505,0.148739663699535,0.197110015101778,-0.286497836527991,-0.222768179946997,0.113146927127223,-0.297474473714828,0.167337205341477,0.230823566429277,-0.191260821004486,-0.24568135452854,0.134707501214284,-0.173268705564136,0.0892721859394649,0.221870273351669,0.259519860369052,0.0394204976026773,-0.156728333432492,-0.0309733404181594,-0.0652562253260618,0.108984301836682,0.0525853645686684,0.028956049725204,-0.0916622562402044,0.0672303446108253,-0.0801849860770702,0.0903106368092323,-0.0252197272624426,-0.0168023616423811,-0.0979622419768248,0.119232343736297,-0.0784287492767376,-0.155012781467209,-0.037133731171442,-0.102945406935291,0.116162146117078,0.00587923669693921,0.137622818748399,-0.106585130887975,0.149018670782519,-0.0839963783973178,-0.0148692412822228,-0.141863913060571,0.126218620816823,0.0500206778782525,-0.146932455818461,0.0131699836009585,-0.126320453471618,0.0686998438389434,0.0330563396052037,0.121385994103677,0.120922268809848,0.0145157917649482,0.0441082559428664,0.0043549756374985,0.0573299170293464,-0.0501009817259232,-0.0451333655032875,-0.109947331181061,0.00616457475444192,0.150812050981378,-0.130564345308502,0.10077970280271,-0.13927035384163,-0.0672275970668663,0.152493875810792,0.0957920643226502,0.151388688662294,-0.0445243496565706,0.0140537144372002,0.156838526908452,-0.0592909507275321,-0.0424180405222156,-0.0626626973650787,-0.0243203241492007,-0.0395455074069735,0.0496657114964567,-0.0957712831666159,0.105532778838112,0.100879906207164,0.00907331724678855,-0.0738636382178361,0.0993016565427119,-0.00746632395816345,0.113532657122409,0.143812102124656,-0.0784215439601361,-0.0318323032548412,0.102456143899007,-0.0271892402850008,-0.0970197340113041,0.0287667986248119,-0.0333902650194264,-0.139227195568275,0.100470067764043,0.122605034053643,-0.0745481926357703,-0.0150285602314371,0.0886654234055107,-0.132920730305352,-0.155081459559832,-0.121310174912131,-0.00322169830071626,-0.077286649019227,0.00834077793483586,0.0998099197403179,0.156889441029187,0.127010322530116,-0.0212065723146312,0.124857790474952,-0.0632929349016346,-0.0988390020342526,-0.00800740290418212,-0.0363636533695773,0.0458508051517667,0.0601170615880918,-0.149544319794445,-0.136727255584612,0.147081119456858,0.0280398825892178,-0.0382052933973041,0.0386376398098799,-0.0426305780654398,0.0761047540995632,0.053940892624024,0.07161738887534,0.0269587343990901,0.122053468889811,-0.135825065629317,-0.0814069537243497,-0.0889354125009534,0.0558962784347077,0.0616057795760702,-0.0662973512933863,0.122224194258079,-0.0512352918061929,-0.042101812237399,-0.115135855097434,0.0319826704582711,0.0873463000841383,0.044836867923925,-0.0356635050992768,-0.165301643528954,-0.0329411512364863,0.0286547146221912,-0.121584544259781,0.118739954253882,0.0652446646217869,-0.120357853140988,-0.155692599835679,-0.0482781957325689,-0.0256060701949194,0.0871559846898738,-0.0576166122636769,0.023576732523134,0.147440120595986,-0.15445187526201,-0.0390362827967476,0.0145258445882852,-0.150070030938709,0.122716000320992,0.127431156214845,-0.129070472840672,0.0965352969263217,0.00187478985336296,0.104446908303771,0.0473282306425744,-0.098349000948279,-0.0143459641455076,-0.0423313519148847,0.150472654681175,-0.127071306213929,0.0367401945705931,-0.0078806834602731,0.00540576305755125,-0.0908602103559101,-0.032900684580561,-0.139298928980996,-0.129563595220232,0.123616121910646,0.0198700950857414,-0.114292434020135,-0.0705785134804415,0.133390565595218,-0.0411037788085003,0.137532414854919,-0.0158315322386602,-0.0910056112836071,0.00988965985906982,-0.106253346374019,-0.0329261413930905,0.03140356206814,0.121884544040052,0.147137462423738,0.122019063056074,-0.138123831653572,-0.0950960284181185,-0.101362700273365,0.0952585672818142,0.00725561722593701,0.00596019131338648,-0.138043113854299,0.0689621480024601,0.131342728831007,0.1149137406425,-0.127704188431453,-0.121100566858521,0.150129505311234,0.0650437695351088,0.0121406237881319,0.0219014796314041,-0.0650278556343696,0.148097313340598,-0.0707540168381559,0.119360394105831,0.0627495543267195,-0.0551234652047836,0.0918154635832082,-0.0235705626893095,0.0206957064922962,-0.093625068185256,0.0293440334597904,-0.0615536908066567,-0.104354671520619,-0.0659027729738087,0.130820243644031,-0.0115665064790673,0.0297341669451481,-0.142440344058914,-0.0419560466145372,0.0746459652738024,-0.065248603749702,0.132552970582106,-0.0944362874639112,0.0831676955741377,0.151122098712369,-0.0211412330210487,-0.0930348374546557,-0.147499044572298,0.145948588301301,0.0104220860609312,0.0108868209984146,0.0417555538540963,0.0399299995774717,0.0538302586451718,0.0394765560422025,0.0406565830013228,-0.144598278061589,0.0908010980536146,0.0594982629391528,-0.00577998697788394,-0.159430760525155,-0.0993155354989795,-0.0358987600770204,0.0982166051107702,-0.14623804611321,0.102377631442844,-0.151290006140676,-0.00779366839842495,-0.0216461449176621,-0.177851905752488,0.349181089870165,0.0550952644538353,0.202550321672741,0.115883017397883,-0.00440396172352225,-0.0943470590139582,-0.100968924209857,0.360296718770604,-0.231428704099067,0.0386129178683135,-0.350136110458964,0.130897131918355,0.101730583394997,0.0779714646216965,-0.218400484346333,-0.0526321785230935,0.284921084849416,-0.21567230793222,0.0704280436977833,0.135389093487761,-0.150030880212464,-0.245992965634791,0.0421484369784499,0.099964802622929,-0.0522342572124448,0.0213522827400122,-0.334379262991539,
